<?xml version="1.0"?>
<opencv_storage>
<stage0>
  <maxWeakCount>6</maxWeakCount>
  <stageThreshold>-1.4700551033020020e+00</stageThreshold>
  <weakClassifiers>
    <_>
      <internalNodes>
        0 -1 2041644 -5.7097473181784153e-03</internalNodes>
      <leafValues>
        7.6914781332015991e-01 -4.6508172154426575e-01</leafValues></_>
    <_>
      <internalNodes>
        0 -1 4570 1.4113596640527248e-02</internalNodes>
      <leafValues>
        -4.9042022228240967e-01 7.9935705661773682e-01</leafValues></_>
    <_>
      <internalNodes>
        0 -1 619670 4.9841310101328418e-05</internalNodes>
      <leafValues>
        4.3308696150779724e-01 -8.9365011453628540e-01</leafValues></_>
    <_>
      <internalNodes>
        0 -1 2036547 -2.6766755618155003e-03</internalNodes>
      <leafValues>
        6.9262826442718506e-01 -4.8598945140838623e-01</leafValues></_>
    <_>
      <internalNodes>
        0 -1 1903883 7.1863423727336340e-06</internalNodes>
      <leafValues>
        3.8825491070747375e-01 -8.3583116531372070e-01</leafValues></_>
    <_>
      <internalNodes>
        0 -1 318719 8.0965898931026459e-02</internalNodes>
      <leafValues>
        -6.7870271205902100e-01 4.6668800711631775e-01</leafValues></_></weakClassifiers></stage0>
</opencv_storage>
